{
  "layer1.weight": [
    [
      -0.052202922027073884,
      -0.1478112171169917,
      0.003110471022212734,
      -0.10465338997592213,
      -0.05325058305386546,
      0.036141275795706966,
      0.04185429056917859,
      0.04022863538935881,
      0.07648401344820199,
      0.081220044969464,
      -0.06612681951793759,
      -0.03602049021108255,
      0.2051606191964762,
      -0.06250506340637157,
      -0.1074881778760247,
      0.08987137758686702,
      0.0011886893812380955,
      -0.1590620501700047,
      0.053654961278617,
      0.02681072344588191,
      -0.07063438769337724,
      -0.0005367071172038648,
      0.03398232202142933,
      -0.016225970839394584,
      0.07411516377534214,
      0.09315950046646049,
      -0.018620906490940354,
      -0.09726338978372012,
      -0.05326022792464441,
      0.12871450698113282,
      0.0060654847184395564,
      -0.09612891111534996,
      -0.0837146580664978,
      0.06138363071848604,
      0.1114667420110195,
      0.06696565001049583,
      0.036960101381670246,
      -0.009624697089140252,
      -0.01945504724590705,
      -0.04617162403522396,
      -0.023261641293914708,
      0.01926865771786334,
      -0.02563543877494568,
      0.0034202185376385023,
      -0.009870404028390982,
      0.06076573919992167,
      0.2565247123466993,
      0.11621249155963789,
      0.13791402906133873,
      0.04621526138529403,
      0.01853470667083104,
      -0.0010850570638347027,
      -0.08379318829678367,
      0.0011408449046290262,
      0.014918355437107862,
      -0.03580958120736665,
      0.13574062122474892,
      0.019240928594778897,
      -0.010426199483794817,
      -0.2585891776713692,
      -0.07291878873719958,
      -0.0035946086654878545,
      -0.01031617648716954,
      0.0015411052872438124
    ],
    [
      -0.09670586903403176,
      -0.1703431571696577,
      -0.22358560719033505,
      0.0662697576919136,
      -0.23676421497923103,
      -0.16624218735089175,
      -0.01864913186061611,
      -0.05483407484935417,
      -0.04189145978347386,
      0.12474502871329991,
      -0.02881782999025458,
      0.19481936258426524,
      0.07428612466606525,
      0.014129042636368395,
      -0.040544370626909874,
      0.10796781511712082,
      0.15171506894344045,
      -0.011170560203682324,
      0.15864725480584582,
      0.04599964904360632,
      -0.17533686680644694,
      0.13129340172148204,
      0.022882531221069872,
      -0.21459772150621217,
      -0.12102052910808894,
      -0.06939641527696523,
      0.016630455851868724,
      0.07623145528600457,
      0.0016592520386512462,
      -0.003288291080725285,
      0.04508022761218568,
      0.07481189294139778,
      0.08109587274768074,
      -0.14412860458601603,
      0.0018868459816987018,
      -0.12167369473652823,
      -0.13960397485977372,
      0.01099577949675354,
      0.023926690641899284,
      0.09274057646765216,
      -0.11652349784930516,
      0.10142605439473523,
      -0.2316979092650455,
      0.034726548371524855,
      0.005455704569806828,
      -0.09477913626700575,
      -0.05705952768642917,
      -0.17639129757448238,
      0.022434905196678172,
      -0.024087141978268053,
      0.1445546527619218,
      0.1758192321689343,
      -0.07855432645828961,
      -0.029437428129197446,
      0.014902769396400388,
      -0.0685848864608556,
      0.018108203136860245,
      -0.08469415859716062,
      -0.10405576032941335,
      -0.20143798945407704,
      0.09319693060722034,
      -0.11561274999489027,
      0.05900863931686587,
      -0.07570208301555047
    ],
    [
      -0.10920925634547954,
      0.04508213407850953,
      0.06500095297036078,
      -0.10929288597011605,
      -0.17906855661951712,
      0.1909694476046372,
      -0.1331973467829464,
      0.043285138334510344,
      -0.003073729669230112,
      -0.04348548217321661,
      -0.04563022262766678,
      0.09266720025254485,
      0.01962699966964778,
      0.03767138984973834,
      0.05777391886079422,
      0.12850959357112027,
      0.025002923012222757,
      -0.08548279740310087,
      0.15913721677970322,
      -0.06843976003682332,
      0.10074943841281225,
      -0.005063590824897737,
      0.06890941661001318,
      0.08970895305099483,
      0.05935912892393244,
      0.0032145241442205746,
      -0.11055984249853142,
      0.17218684997471467,
      0.043016689457911636,
      8.437703202618113e-05,
      0.16582488453768637,
      -0.038329722428618075,
      0.07078926636674497,
      0.07767067060083614,
      -0.047107481409310675,
      -0.030259983352668232,
      -0.10769105364419063,
      0.05181947609889767,
      -0.12536638770741101,
      -0.11823228502993169,
      -0.08145231651179922,
      -0.018008509337574252,
      -0.01655020295938381,
      0.04682095556570555,
      0.20740226263329378,
      -0.1812193650790964,
      0.030606418706781303,
      0.0449878829246563,
      0.0324828555952338,
      -0.014765874006133637,
      0.02471363955038416,
      0.10400695186509,
      -0.13958299407710542,
      0.1018536824451394,
      0.11381191919660459,
      -0.028730162254395303,
      0.10823875479307457,
      0.10425638069747814,
      -0.0021824365891870146,
      -0.10100265917781111,
      0.0845417413877275,
      -0.10751349547796307,
      0.07743274089029853,
      0.025098000483614127
    ],
    [
      -0.029423407989606742,
      0.19456730986894114,
      -0.19603751669176805,
      0.03191437580001847,
      -0.010205739862499058,
      0.16896414741880897,
      -0.11722418884730645,
      -0.07146919219254948,
      0.06632111273377347,
      0.0435789356890868,
      -0.0057167204157779275,
      0.038280006471793276,
      0.02935460224484861,
      0.1525529580544005,
      -0.1495025669177612,
      0.09817545984910409,
      0.07478074459873721,
      0.1543458525814439,
      -0.10551293637549662,
      0.044738845103373066,
      -0.16285446610420143,
      -0.01526708908156835,
      0.12425202926988901,
      -0.09464697803529272,
      -0.06280253144639279,
      0.10402122371114363,
      -0.029329037227644118,
      0.21402358713560604,
      -0.06453556542800107,
      0.0788716969732547,
      -0.03985036308467687,
      0.04105863220564726,
      -0.0822682711144605,
      -0.05782279647568529,
      0.033526183507332226,
      -0.02712880478540764,
      -0.04780331983024482,
      0.10656509229528877,
      -0.14165504182928332,
      0.09726354792609715,
      -0.12921997445656508,
      0.24165428818862447,
      -0.01468434951836829,
      -0.045070414764210566,
      -0.0006664549411405844,
      0.0730915907393317,
      -0.029612905991178634,
      0.04669611153517457,
      0.22631773629549445,
      0.04777020239291329,
      -0.10814429338966257,
      0.004030365750451166,
      -0.11229218592354301,
      0.1256614615970647,
      -0.23088371895958085,
      -0.08081455438713839,
      -0.06519748977818797,
      -0.08150146021655257,
      -0.006622468963165007,
      0.08936169187751149,
      -0.014955914877505175,
      0.0451417376574517,
      -0.22200909075908148,
      -0.029504236429890203
    ],
    [
      0.03549297056153155,
      -0.06062378048831656,
      0.11556050926507085,
      0.09831162163315764,
      -0.04298767620502438,
      0.0746378983676701,
      -0.03507630448741144,
      0.07508335488425286,
      0.07101963191510631,
      -0.010481593223549366,
      -0.10070792295169202,
      -0.04171235607466986,
      0.18953782147210818,
      0.0991748948181918,
      0.23076274509706432,
      -0.08011647051492538,
      0.08612415765296301,
      0.08069961638398487,
      0.024020670532631634,
      0.0814134128919917,
      0.028215167967866436,
      0.06905920597944047,
      -0.09694005014242581,
      -0.0025281707469754734,
      -0.1323682493947239,
      -0.01570825810316882,
      0.12033912568524514,
      -0.04117213438455807,
      0.0709686296341026,
      0.010158309490107023,
      0.13803765488775863,
      0.06827258651818903,
      0.1153311151373223,
      -0.20324704290260068,
      0.004386895048956167,
      0.10847079250333834,
      0.05274080640747031,
      0.0365960456507957,
      -0.05049459815518536,
      -0.1322516143279438,
      0.1351492392189067,
      -0.0242050894118864,
      -0.1710648165825136,
      -0.024523398279691716,
      0.27715441884638825,
      0.23310662309248925,
      -0.0016629613866529726,
      -0.08605162888761357,
      -0.04159950897177572,
      -0.006012188908041741,
      -0.07674997429854957,
      0.16721335723043979,
      0.0898054741620975,
      0.0062736051196758515,
      -0.04955039762147205,
      0.14215514015007677,
      0.023175598023979505,
      -0.14650718582951322,
      0.09745505374711579,
      0.02536992485435638,
      -0.07664147212079431,
      -0.06767224542670146,
      0.024479761939640007,
      0.06778067300782334
    ],
    [
      0.034514782548810574,
      0.08134988951108636,
      0.1875340812373727,
      -0.013589162770498176,
      0.03547975678405523,
      0.06178363138753611,
      -0.1609188351449181,
      -0.05001932948873629,
      0.006196775906618082,
      -0.07565486204625396,
      -0.09413307906137845,
      0.0939475054347893,
      0.003572484365773043,
      0.06159337633958,
      -0.10209642373190092,
      0.08781281794196955,
      0.143881226648271,
      0.1352934294663086,
      0.024963129052947147,
      0.012675119600843969,
      0.11868506499560552,
      0.013776094414027882,
      -0.0986372249956941,
      -0.08653943108054095,
      0.025008516109288143,
      -0.02037741364054586,
      -0.02062679110080398,
      0.13490597648600228,
      -0.025353815687810716,
      0.12520527955461902,
      0.09872625910297693,
      -0.16040121599147836,
      0.0787814071280037,
      0.02431937720042314,
      -0.040776316496378515,
      0.12547671189188112,
      0.1203884457985877,
      -0.055936625116184746,
      -0.19470786576274923,
      0.1443038498689971,
      0.055709985812449805,
      -0.10448506183941722,
      -0.06525999451316272,
      0.1668684503423388,
      0.10563059945550596,
      -0.040985185198610705,
      -0.02705872478683215,
      0.02897025990264586,
      -0.04373930006048772,
      0.06244685337853892,
      -0.27740931473396047,
      0.12359205366380216,
      0.04155985662367584,
      0.07655004423433648,
      -0.09889704501146125,
      -0.1428820191441976,
      -0.04486742506803831,
      -0.03159203614049178,
      0.1748799258045875,
      0.018997354134257162,
      -0.02540685759839867,
      0.011716923851186422,
      -0.07277116391841662,
      -0.09834547459197023
    ],
    [
      -0.15577340232709805,
      -0.026294801550591263,
      -0.039365591677958514,
      -0.04462472829580343,
      -0.03945501009505066,
      0.19410972979890712,
      -0.1376500258571795,
      0.01746108380913542,
      -0.0600568745765232,
      0.12956969935546275,
      -0.16598149719139677,
      0.1461044176730316,
      0.12083331658468772,
      0.10964660119185526,
      0.09293334950169968,
      0.19078117354045032,
      -0.01325624666468947,
      -0.03731047331001467,
      -0.08880230645237469,
      0.04382304741333731,
      0.06563075106107795,
      -0.03534454700890436,
      -0.002317908893275051,
      -0.11422164234751411,
      0.21729511082158637,
      -0.014312137606999257,
      -0.10017162884245695,
      -0.06152828348804719,
      -0.07515440886314831,
      -0.019871739176497948,
      0.042674473068805764,
      0.05921776778409265,
      0.08598142591516433,
      0.06080467385966019,
      0.02931621482531635,
      0.1698791371403133,
      0.023854977371900725,
      0.040477985451714216,
      -0.2249763775773754,
      0.07138755673313738,
      0.029523257910236647,
      0.08335004447786482,
      0.0024029245101702015,
      -0.08669020724040236,
      -0.046824329289957334,
      -0.005300797012966893,
      0.00879819608293742,
      0.03964530576226422,
      -0.2607562823361879,
      -0.004750165752617274,
      0.013150215993424814,
      0.03780324587617703,
      -0.07327240320807683,
      0.07962097168312211,
      -0.12621218967515443,
      -0.0042050440775671565,
      -0.178522214784688,
      -0.04342772084485677,
      0.14167558114694132,
      -0.19018801377651623,
      0.09072236468604751,
      -0.005886061309876207,
      0.04050786553295066,
      -0.009943903047212441
    ],
    [
      -0.1530487126614542,
      0.12559736507562985,
      -0.03926123113706746,
      -0.03823865364823763,
      0.023012006490186716,
      -0.08079424950711686,
      -0.12562338073187557,
      0.08281929220485541,
      0.06284471148445224,
      -0.15560738709763336,
      0.0833276479841128,
      0.11023043021604476,
      -0.038917364442687036,
      -0.023545413804327463,
      -0.24185942367294883,
      -0.05053490314746311,
      0.01692189141831763,
      0.10016545568424425,
      -0.08025791068290723,
      0.02724491768322755,
      -0.027627051255840397,
      0.02900669921189618,
      -0.01665180613933678,
      0.01318486955214887,
      0.01530150363010453,
      -0.2226325320679841,
      -0.03201652204532478,
      -0.05087569817525352,
      -0.038871309401381345,
      -0.1900384368888912,
      -0.1709805325051911,
      -0.08856689600185992,
      -0.018626792066323446,
      -0.0935151548622665,
      -0.18170754894742586,
      0.11864226741610324,
      0.0832205183692998,
      0.0884512903364264,
      -0.022260586421530518,
      0.2121039655991023,
      -0.1437281756077898,
      -0.0374264578710885,
      -0.09753310307612123,
      -0.041939397589413785,
      -0.015186655634046437,
      0.06847485223875092,
      0.038073735559648866,
      0.07501069329986948,
      -0.06120217092374708,
      0.06635944811787545,
      0.055472227156922675,
      0.13184641011736684,
      -0.01199602305401628,
      0.13222996634683545,
      -0.09684491547372752,
      -0.0881082900706921,
      -0.01948543684976216,
      0.104649178604543,
      0.030606621714340317,
      0.17390209402550033,
      0.048913920256445954,
      -0.07825121978166011,
      0.0055799162851040566,
      0.030812742135224353
    ],
    [
      0.13464404943272099,
      0.0027708324395895314,
      0.009200995531579194,
      -0.1373946183437748,
      -0.0978309968669719,
      -0.01710979249492841,
      0.046482469873558356,
      -0.10891038679214814,
      0.030498655181260603,
      -0.14380646177074083,
      -0.14089548111498257,
      0.06999007978853268,
      0.10796122616636693,
      0.008025613495027612,
      -0.0825677480152019,
      0.02730313552016278,
      -0.07079776663286236,
      0.08334709082686954,
      0.12132134506894127,
      0.04963349980460904,
      -0.09294847757261937,
      0.13941122017793536,
      0.0816697079745193,
      -0.06273298214093935,
      0.0011535559641589462,
      -0.08053004687992622,
      0.17066651817535852,
      -0.0121156447571047,
      -0.14501941800198853,
      0.056589934753258714,
      0.1673462634323547,
      -1.68881853251635e-06,
      -0.1322407886588483,
      0.09557224401570563,
      -0.07621257503787607,
      0.10449792981781164,
      -0.1448820816152393,
      -0.11005563205079959,
      0.029135210396705403,
      0.10984647429121455,
      -0.028583501905384386,
      0.17436595932913368,
      0.01747766803486767,
      -0.05011822150486827,
      0.0009035176577842138,
      0.04179996082680615,
      -0.059663147786142505,
      -0.11974511862212059,
      0.014094337967919418,
      0.028396808017978767,
      -0.034714798541569745,
      -0.005108665968436139,
      0.015221009468305173,
      -0.031114527911453856,
      0.12001430941577738,
      0.015877018960611607,
      0.12391514503340302,
      0.06961759001724721,
      -0.1111491579762724,
      -0.13090526948361764,
      -0.07846917656491659,
      0.051456095953555527,
      0.05002406204890413,
      0.025286311574201033
    ],
    [
      0.04143532905248945,
      -0.089644563211584,
      -0.20654348514837487,
      -0.0542603471452788,
      0.04514674130216516,
      -0.09055375385301505,
      0.11125758045134526,
      -0.050011518119531764,
      -0.2321230724143303,
      0.009046459938426284,
      -0.02560151764589947,
      -0.17926498254109452,
      -0.06543077263278578,
      -0.07454396073338034,
      -0.04346042300054757,
      0.02787348104191141,
      -0.11547399469692043,
      -0.04849784307259766,
      -0.10110445872898018,
      0.008951025606434597,
      0.09292490228769379,
      -0.013465652167521311,
      -0.08154649121893405,
      0.011789013519708985,
      0.12112896902179644,
      0.00420141046076917,
      0.017899704800066456,
      0.017819142146563643,
      0.09546814569744644,
      0.09481958272530813,
      -0.040836474190423785,
      0.11268421325329664,
      0.02694573023951094,
      -0.006540812061138318,
      0.19345741451555212,
      -0.17914051996730698,
      0.054131430629774616,
      -0.011918160211701029,
      0.07694481598684716,
      0.08920473132373102,
      0.07197080626488851,
      0.010630394730984913,
      -0.09929275734265028,
      -0.01737253332116954,
      0.17917233146499476,
      -0.05908791517970638,
      -0.31995095474088064,
      -0.22945544250521843,
      -0.00471422333256265,
      0.0702287862297243,
      0.06876125530752544,
      0.008986848710044381,
      0.0771991926859965,
      -0.07677729672608608,
      -0.05068664308873151,
      0.12636432046545673,
      -0.06340754753721493,
      -0.019992515379577778,
      -0.04320716047307717,
      0.08879446049659412,
      -0.09968966056020637,
      0.09671224287140989,
      0.0864272967503308,
      -0.12460818835723882
    ],
    [
      0.07378355028515549,
      0.07820155038932718,
      -0.11490903213053393,
      -0.07991828349891973,
      -0.17625206598649235,
      0.03028423315506882,
      0.04207843721836582,
      -0.028491331836226028,
      0.13645409236734232,
      -0.11464433982137719,
      -0.03291293455747504,
      -0.10549819948232485,
      -0.008938525285409225,
      0.16410802553859138,
      0.07624359313046668,
      0.11525813818458873,
      -0.20911258829150708,
      -0.10001138773901151,
      -0.08008504635011232,
      0.035184620276734434,
      0.0665825451561844,
      -0.04438330827900623,
      -0.007292766101449067,
      -0.08365691014015875,
      -0.1052625852742638,
      -0.04369344482414919,
      -0.0017564456044753003,
      -0.0031128112683731957,
      -0.03690868089910839,
      0.021793473351475162,
      0.08698208539565025,
      -0.029233939366776193,
      -0.2662166863716562,
      0.13699885519603547,
      0.0011819844289298808,
      -0.08386830691819497,
      0.22222311065767225,
      0.010878884731601438,
      0.05943775882419863,
      -0.08697228263214468,
      0.005260438358193243,
      -0.09120436741011734,
      0.028947251985756574,
      -0.17431204482425683,
      -0.07462512250047114,
      -0.007029613555004789,
      0.05977726918005982,
      -0.0617702115451543,
      0.03947979170993835,
      0.0046012516044657064,
      -0.10236143572507078,
      -0.01362391483126929,
      -0.10540527777127916,
      0.05955967058293622,
      -0.08470154444667187,
      -0.12813512464841886,
      0.05621764138534396,
      -0.061675287375141254,
      0.1358912308975768,
      0.11586075247339143,
      0.17655093849577208,
      0.07909966454617195,
      -0.006445642686109767,
      -0.028879516010016495
    ],
    [
      -0.0841683509253473,
      0.006531055631514341,
      0.0820251712447606,
      0.042763258435858785,
      -0.21751115704242008,
      0.10579691242002005,
      -0.1334203771315116,
      0.0690189954377437,
      0.11825716727471841,
      -0.06350743985485258,
      0.029714214025191355,
      -0.053130336083477864,
      0.05445519966869481,
      -0.06898877321292346,
      0.055047888080897604,
      0.1414597187915847,
      0.11140937206753077,
      -0.045289569280545096,
      -0.15637712963447298,
      0.10930123886047752,
      0.1439514818381418,
      -0.05715365503280805,
      0.016799043480439983,
      -0.03315917392625733,
      -0.18047889941920842,
      -0.009305218856985415,
      -0.02995268882082587,
      -0.041421047009722343,
      0.01662400873116642,
      -0.21281344331635588,
      -0.08986447821901011,
      -0.01736371262861054,
      -0.04386955418671289,
      0.15593701097164858,
      0.02660899656399662,
      0.012304368583802407,
      -0.10828425129732931,
      -0.08113213693444088,
      0.049157603482775064,
      0.05186545030913853,
      -0.14220813880843455,
      0.1705429910853722,
      0.06543654494788699,
      -0.004963583141750184,
      -0.1314889980463248,
      -0.11570519531486126,
      0.16418339463460851,
      -0.3417869384228312,
      0.06333438991001362,
      -0.11005015386380579,
      -0.041364062733678014,
      -0.07756960934879698,
      -0.16967639349562458,
      0.06535611578832808,
      -0.16306698263619185,
      -0.11582635395839598,
      -0.024727953751678994,
      0.0034267776817722855,
      0.10644688014666595,
      -0.14786102808919097,
      0.1648081132205907,
      0.0807802397921563,
      -0.10386121821510352,
      0.07241548979810157
    ],
    [
      0.05602652364740766,
      0.03599627883056312,
      0.0746754490830168,
      0.07038092229885372,
      -0.02832572583093166,
      0.04784616842441314,
      -0.06500568899050511,
      0.1438454486741834,
      0.05528325940596766,
      0.10131097386830862,
      -0.09954240028607164,
      -0.15758902726119445,
      -0.027672262785497132,
      -0.029288186503082903,
      -0.11241519629713047,
      -0.0791368177851714,
      -0.06829832758906194,
      -0.023749302220366184,
      0.020751366754943518,
      0.06399800904755935,
      0.1090948851401422,
      -0.08578741971396792,
      0.08583131732037186,
      -0.041679900157199926,
      -0.08558219901025652,
      0.06789832935773031,
      0.17400400208881317,
      0.13342836995019122,
      -0.05517229048068789,
      -0.09710383736063027,
      -0.01989337112435113,
      -0.07818277343039805,
      -0.001733552212356086,
      0.012921844446532361,
      0.15678399228571324,
      0.03479904067367089,
      0.03776281374537044,
      0.1702505130668646,
      0.13165543343683225,
      0.003385227898402477,
      -0.025254457730618258,
      0.025289306265745517,
      0.054524976511699935,
      0.13494136649988095,
      -0.011261953441416337,
      0.02693466509698599,
      0.0705292245162029,
      -0.11599656698148907,
      -0.18909275008422452,
      0.041343210067407786,
      -0.0708935194722715,
      -0.01323259221541619,
      0.021083284792397346,
      0.06452311287069516,
      -0.06638889583362118,
      0.08273201264438146,
      0.08856316695638394,
      -0.09519638750407061,
      -0.08915245179093124,
      -0.08096951978858047,
      0.04501072280760487,
      -0.07031572842834881,
      -0.22581187405679778,
      -0.09460719562173531
    ],
    [
      -0.08535086528896751,
      0.05129771807552346,
      -0.08096635578573128,
      -0.05048127545621694,
      0.025683148561748904,
      0.13359867040918874,
      -0.06517311520623861,
      0.22911044895065685,
      -0.059943986363976104,
      -0.17206150057562683,
      -0.05969437230641531,
      -0.08025938494947275,
      -0.3032349506957286,
      -0.23973657035272644,
      0.09648145212610305,
      -0.018732055549363205,
      0.17780691295066767,
      0.044173507423109125,
      0.0026071046221637917,
      -0.05132099558460484,
      0.13560824453392858,
      -0.051622515628320466,
      -0.11884586028664482,
      -0.060386363772946795,
      -0.06241868249980791,
      -0.18351643612697646,
      -0.013918416156805963,
      0.035181981833812846,
      -0.05932780565347495,
      0.027971541126066236,
      -0.12103633239351111,
      -0.007679488958834019,
      -0.12100640985950034,
      0.08077809596580436,
      -0.0939504000862194,
      -0.003279452940517396,
      0.1578134493518645,
      0.06162145681594033,
      -0.0864772532243222,
      -0.05863341724329975,
      -0.03142018393398112,
      -0.010210410376777035,
      0.026183573970430668,
      -0.11937277485975917,
      0.08699705942585549,
      0.06973553024090313,
      -0.024335107016717355,
      0.026745103641886914,
      -0.11253117281674099,
      -0.04383399915019637,
      0.0073414631709689164,
      0.06193581289551067,
      0.0880114641082628,
      0.12960078959767815,
      -0.02913968063848132,
      0.1564340564461309,
      -0.10254751816379491,
      0.09642371635111445,
      0.16361179706123152,
      0.016369897190789736,
      -0.1082782643136371,
      -0.12916717574434514,
      0.09491684667555146,
      0.06427345251831028
    ],
    [
      -0.010085798045108445,
      -0.11630798342231859,
      -0.002472623173311218,
      -0.040951118717034954,
      0.14639062172259706,
      0.0878386288413494,
      -0.0840898989960732,
      -0.06163018917202681,
      -0.11993810391984046,
      -0.05853586128722227,
      0.02856335755804329,
      -0.06811145233361814,
      0.16410517007877085,
      0.19181895085147802,
      0.05636484849309337,
      -0.033250178888369286,
      -0.01928568629130934,
      0.13772925083255272,
      0.0067694662555844946,
      0.04543758477169898,
      0.030325621196716127,
      0.08553286122251912,
      0.00034851749726109223,
      0.054480142509128554,
      0.1379842706022162,
      -0.047290336219457975,
      0.06045288693713487,
      -0.054976118945399756,
      -0.06892852506622997,
      -0.0014413047814167993,
      -0.03805131846807658,
      -0.21559101565052124,
      -0.13424291053689438,
      0.02105993535078635,
      0.04548608186491398,
      -0.08338075445691537,
      0.0882703210125868,
      -0.03753837464727106,
      0.10914596614960792,
      -0.009241875964808273,
      0.09280579060559149,
      -0.022043615583398887,
      0.11716380112168959,
      0.03672570111275036,
      -0.22298888054485377,
      0.05870763589000358,
      -0.2531515871834375,
      -0.18670143576509593,
      -0.02356707358796682,
      0.04654053664313623,
      -0.07189758800779045,
      0.1157185044339144,
      0.018224229516942875,
      0.0721796348388776,
      -0.2419715156622737,
      0.05758468906616866,
      0.038192433263144934,
      0.07625990689805501,
      0.051123897192995496,
      0.010159878807187848,
      -0.14104931424077471,
      -0.05184599257911469,
      -0.15918181952102284,
      0.021031084230938638
    ],
    [
      -0.07924098047848607,
      -0.03710678265632391,
      -0.03348494695371434,
      0.15322326178343348,
      -0.05487709850257571,
      0.005519033866942916,
      0.03614308182495045,
      0.011520882593058957,
      0.015971795657880046,
      -0.05716483315979525,
      -0.12404361438281925,
      -0.13534751421913196,
      0.1352883078504268,
      0.15784284557868705,
      0.06568108814572751,
      -0.019033397032590868,
      -0.0182352800692269,
      -0.22542861292618033,
      -0.18040236993765904,
      -0.14721630255059479,
      0.10316250575377472,
      0.03865234346999254,
      0.08416240069475739,
      0.08027752072762473,
      -0.08016200100619741,
      0.019433528166168154,
      -0.0971381109254185,
      -0.13039963198806287,
      -0.07901187464261003,
      -0.10003537650431492,
      0.054812134817595684,
      0.03062519997430023,
      0.10808768302070965,
      0.21156760588739157,
      -0.0200984651296328,
      0.03640684903702523,
      0.041326956600483224,
      -0.06382887299645269,
      0.07532208046432826,
      0.06191118991987418,
      0.031780959148293084,
      -0.04750211384290626,
      0.009179666668734631,
      -0.064333006148802,
      -0.06395361753312438,
      0.13501610178770146,
      0.09832047192249813,
      -0.07734477620454924,
      -0.05269063783083949,
      -0.08169138073545999,
      0.12335589795541779,
      -0.1304619075883202,
      -0.15519558654140214,
      -0.2349043670440849,
      -0.05594059890504637,
      0.011183442398128966,
      -0.013287014092458055,
      0.004968206896520722,
      0.13602124906610413,
      0.03542038668226815,
      0.0238849737881362,
      -0.13920802083556702,
      -0.0143733038191808,
      -0.11450703875703756
    ],
    [
      -0.06561598311198162,
      -0.06224714946218318,
      0.07424827896005039,
      -0.030761490003491487,
      -0.005538216932327713,
      -0.046149336939462104,
      0.014097800746455075,
      -0.07428252730963701,
      0.029549551079977344,
      0.05004155118060889,
      0.059790409785818725,
      0.06308092021039305,
      0.16635943532753295,
      0.10816197528235941,
      -0.0333550611151486,
      0.09502038965997323,
      0.020594336825692654,
      0.042499577725127455,
      0.00958126880302677,
      -0.05305527137411884,
      -0.02433193158926636,
      0.0142943450387201,
      -0.2844681392420513,
      -0.04925670179239064,
      -0.2240618144879583,
      -0.1116851675716394,
      -0.10809441859130875,
      -0.14698047198803418,
      -0.01069181900006494,
      -0.159024384242816,
      -0.02460983768181831,
      0.1061132066641256,
      -0.05298748010810788,
      -0.10397405112651636,
      0.01588855900409099,
      -0.09014482437179679,
      0.10219583201033729,
      0.15777293349297578,
      0.0973003861943429,
      -0.10984026714954015,
      -0.01540730838052109,
      -0.10154151727420886,
      0.0759583707262903,
      0.09827678707523821,
      0.05521462940141461,
      -0.1336059150156947,
      0.36374614411837697,
      0.10698373225042801,
      -0.12501218821382884,
      0.13251082171269316,
      -0.02131616240055181,
      -0.04460133788982573,
      0.09395055995170985,
      0.19908618181950619,
      0.13099073236485845,
      0.005706936619531815,
      0.09330524792922906,
      0.13141046180807525,
      0.15427381997431752,
      -0.06828969597171315,
      -0.06434147912795178,
      -0.09021554137466109,
      -0.13043075424248815,
      -0.15389935926748108
    ],
    [
      0.0767404062757664,
      -0.07658527061589054,
      0.04463212878678468,
      -0.017645648883925603,
      0.014726803263511268,
      0.12990288560068872,
      0.028022387862308658,
      -0.11476565802018837,
      0.26259559830576545,
      -0.09465568730833844,
      0.15492446295654266,
      0.06260954047639683,
      -0.08864028074197101,
      0.13263654355779628,
      -0.036835760697159534,
      -0.06156736718234712,
      0.012410310016723018,
      0.24067716393295366,
      -0.09287069123157164,
      0.003781202759695382,
      0.028794297908520474,
      0.034680848682182894,
      0.17209181010551722,
      -0.0806967312851957,
      0.014481459391077306,
      0.059224418767672975,
      0.07181839608413347,
      0.16778421409276664,
      -0.12271394476355904,
      0.08625234070629476,
      -0.00651850725320306,
      -0.150615694896184,
      -0.03518220317403522,
      0.06273230164000668,
      -0.05148384675404617,
      0.04902473206281906,
      0.08917450745575535,
      -0.0038957497204617506,
      0.12016001847348803,
      -0.0846052562505571,
      0.08071313548385001,
      0.1383997436453993,
      -0.01596546740303038,
      -0.12813691856719317,
      -0.012383064197560138,
      -0.096178657406362,
      -0.07951002971360106,
      -0.076729918116427,
      0.14071935465183824,
      0.07454810885747697,
      0.08566544717467316,
      0.11566485412079924,
      0.03692803958260958,
      -0.021314833364166133,
      0.17833311678848252,
      -0.1849169069009281,
      -0.037934047392362176,
      -0.04345286043456433,
      0.03402002511186674,
      -0.1746375914755126,
      0.16456973318706158,
      -0.07761769161098425,
      -0.14935667563032878,
      0.030777507564975194
    ],
    [
      -0.1257802858077459,
      0.15753990502625326,
      0.15219299494369842,
      0.04144022744699146,
      -0.208754962159545,
      0.04254304440222589,
      0.06010810174216141,
      0.04512095612739044,
      0.033617130943671435,
      0.12005245806010854,
      0.0229246925147528,
      -0.0287212215640793,
      0.08508699270494802,
      -0.06486259132823492,
      0.15488483301301104,
      -0.005192818107265535,
      -0.150257254691294,
      -0.2058031042380256,
      -0.03304078459806016,
      -0.13720627689994788,
      0.025307702985046327,
      -0.056338465479268664,
      -0.18862249520275667,
      0.00928785338784323,
      -0.09530090591097092,
      -0.11467059508854738,
      -0.09725498400894694,
      0.16086807649256732,
      0.031168210233193064,
      0.09540975663001638,
      -0.09384747030399587,
      -0.014065310388648014,
      -0.020031161588941644,
      -0.07510930041095282,
      0.0977750141933682,
      -0.013576230015901691,
      -0.07634858963212107,
      -0.06943097041843602,
      -0.0055253440093587115,
      -0.16130665558539695,
      -0.09375516408101753,
      0.09026632278323979,
      -0.07290949687352133,
      -0.012913875918902296,
      -0.2562829700538413,
      0.05063988959101871,
      0.08375696095037764,
      -0.01611914077270243,
      0.06539964827300787,
      -0.045436641756768315,
      0.02574059981284063,
      0.08171796624136017,
      0.0390898293581623,
      -0.19259980065873472,
      0.12523177798577864,
      0.1844959950191167,
      0.0604805123525221,
      -0.07046599271647093,
      -0.027154856380127487,
      -0.1143122507840986,
      -0.016555852293856324,
      0.06872722500485065,
      0.14384076062897128,
      0.10841531321044023
    ],
    [
      0.014663304694786009,
      0.041241763878501536,
      0.10008775849076601,
      0.09048913975015149,
      0.05066715198442741,
      -0.16619967820952408,
      -0.1187076471918071,
      0.005370726238893242,
      -0.14804392206986272,
      -0.026345136268364613,
      -0.125469077370074,
      -0.24124195421504294,
      0.07164083284797722,
      0.006401773118743209,
      -0.028891123639335527,
      -0.028634434463200964,
      -0.17731189531131397,
      -0.0011429383184329075,
      -0.10660578669526084,
      0.09525484018650664,
      -0.007071873768680651,
      -0.020775867811855288,
      0.19000178211361599,
      -0.13924235486801048,
      0.09254178321352048,
      -0.09467038827076857,
      0.25542022301597683,
      -0.028599967568423576,
      -0.035301644549202656,
      -0.04641207972095579,
      0.08443469473351616,
      0.05731679072309573,
      0.027001645046990548,
      0.14335447352128047,
      -0.09359697763777924,
      0.010010307444859007,
      0.11795214640555572,
      0.01261450264224033,
      0.10335047148396621,
      -0.06610174971058697,
      -0.021755514625141414,
      -0.18592381540582245,
      0.056658271200010685,
      -0.2109483246438409,
      -0.028351746527117472,
      -0.016277846848414747,
      0.04204843807724088,
      0.04304918358098597,
      0.035869396371008035,
      -0.031333077146711776,
      0.011009684588020782,
      0.0967964365914214,
      0.1214148736338901,
      -0.035437308986315884,
      -0.13590892538097393,
      -0.12569998463983648,
      0.0279918556457667,
      -0.007822034285700297,
      0.006956063410210405,
      -0.0032474240031278266,
      -0.02432216049752034,
      0.10369941986935648,
      -0.003426558403575878,
      -0.01873833041229095
    ],
    [
      0.06501194715120825,
      -0.11154721017572139,
      -0.06113774559490394,
      -0.07469669507136176,
      0.09355081297699885,
      0.07258281642795392,
      -0.007610146500619405,
      0.18948263321792658,
      -0.038759992039940155,
      -0.25711893406671116,
      -0.028119991794364557,
      0.047712593230832774,
      0.0738017540566822,
      -0.029316841831594755,
      -0.1590151273633461,
      -0.007267511055741138,
      0.14791495366391824,
      0.08008718818056218,
      -0.029225074246069543,
      0.023504319137392805,
      -0.061499874272394284,
      0.02844538914939576,
      -0.10539641265935196,
      0.14623268361685784,
      0.015139249973577623,
      0.062290361306793766,
      0.10168833156826984,
      -0.12940429336789736,
      0.0378863280733663,
      -0.05740048574966296,
      0.08980206235133753,
      -0.1012082170487785,
      -0.03237208941580576,
      -0.10664827837521654,
      0.28605515017845534,
      0.1644947698885625,
      0.0790894064649569,
      0.0927374088549957,
      0.13990552038775897,
      -0.03171704489621808,
      0.019077746197656575,
      -0.1180924717383932,
      0.06453661856755184,
      0.3249034576392327,
      -0.0776546413207287,
      -0.22620065837381637,
      -0.03125802586849324,
      0.0422160541392431,
      0.017032927346966716,
      -0.000569623362950429,
      -0.03775212229675818,
      -0.05652413510809256,
      0.0313510577059083,
      -0.10996433033436048,
      -0.008055765463169858,
      0.004969240956525407,
      0.11640518670395453,
      -0.042174373772130604,
      -0.08010748970147968,
      -0.02066871464091277,
      0.044460972223272666,
      0.1843438291231625,
      0.1040860253842957,
      0.028728760325387143
    ],
    [
      -0.056034028047970225,
      -0.11563648264237664,
      -0.003235126889089391,
      0.09217066018032981,
      -0.0031703449749052276,
      0.15000957039106483,
      -0.0817793335430554,
      0.057013361042655454,
      -0.005350524379242154,
      0.20492366326036304,
      0.0030986300897205554,
      0.202780648835773,
      -0.037890377970703146,
      -0.07733961502920297,
      -0.033418327424162945,
      -0.046074878031571204,
      0.0030696123416439416,
      0.09375912953767519,
      0.06936022143965204,
      0.02362688441854218,
      0.05052610052679071,
      0.019981100085906783,
      0.1757971590741968,
      -0.014617912012602211,
      0.10288313956820397,
      0.02097788914437672,
      -0.059253228527016366,
      0.11038702238744745,
      -0.047239750478435226,
      -0.09292618996228479,
      0.0023778866340137205,
      0.0795376739208734,
      0.010122766811088669,
      -0.09148132258775865,
      -0.09928997867230244,
      0.11956169313224374,
      -0.08123902830702022,
      -0.01792646075994343,
      0.059572811525180284,
      0.20337734176303474,
      0.14465273149966287,
      0.14775174610178562,
      -0.11576679139388009,
      -0.031527191104917196,
      -0.011833237072618031,
      0.12490128606029101,
      0.1178294871979942,
      0.21005581089739933,
      0.03226738352074537,
      0.030578460050500217,
      -0.09705054996011904,
      -0.12282736591829949,
      0.09800659439803383,
      0.1202493616930699,
      -0.05841923756638748,
      0.02510310875753127,
      -0.01868017051376106,
      -0.16064428568522096,
      -0.008598591634086413,
      0.028222602267668415,
      0.19631829634315712,
      0.015501365377762574,
      0.04793312868472496,
      0.0652369251463982
    ],
    [
      -0.06314405501503799,
      0.19632506789303197,
      0.028348390147180796,
      0.014769049623642484,
      -0.06947584524778322,
      0.040915226383749136,
      0.10244408038242728,
      0.022843504156098586,
      0.00815879044643304,
      -0.08130576755498152,
      0.11055150889677941,
      0.031547327556378485,
      0.004218955661603736,
      -0.07619147371772439,
      0.004236241263816586,
      0.03010848808790563,
      0.021249515303922,
      -0.00338531401762825,
      -0.05180207179282253,
      -0.10037497873963622,
      -0.0839911039070516,
      -0.029936908035866867,
      0.1520519571902106,
      -0.016624188295907196,
      -0.058628290569500134,
      -0.13782136190670066,
      -0.051507151157915425,
      -0.1013915931594479,
      0.23898750958020998,
      -0.026552441851909997,
      -0.13925597310051188,
      -0.10637428701006363,
      -0.0075850280846988735,
      -0.026462446954180374,
      0.07901600133222211,
      -0.2107685346174294,
      0.0007930283945723698,
      -0.08765488382245487,
      0.011808130455468477,
      -0.03889842900002838,
      0.13756507463577855,
      0.004498524062088393,
      0.22131510903947627,
      -0.09239258414369164,
      -0.19438207661985868,
      0.057229448903160667,
      -0.007116181647224053,
      0.08064159943801444,
      0.15397744342819042,
      -0.0165272516225555,
      -0.03534098880945158,
      -0.04989882457923715,
      0.13782368690552035,
      0.0669118754883047,
      -0.10136291166447167,
      0.06129573216982967,
      -0.09088141118532461,
      -0.011153588778011259,
      0.12482633197487294,
      -0.11406879655267509,
      0.023989413618366928,
      0.043874563928947084,
      0.20394697494295377,
      -0.10490137254921846
    ],
    [
      0.0803885083581855,
      -0.024339468300344082,
      -0.01035109026471121,
      -0.02559394768387184,
      0.26761809948947385,
      0.06587875888042713,
      -0.04121235317646804,
      0.10844366959661829,
      -0.004255511922975159,
      0.1059043403222231,
      -0.0389592587663429,
      -0.19654457933809957,
      -0.2628929611156929,
      -0.029211959641645815,
      0.15051260424246216,
      0.030829494525773313,
      0.17282615611744065,
      0.05078363846689426,
      -0.0868588912695018,
      0.06817231560201505,
      -0.09766282195442792,
      0.044240298294465484,
      -0.054917762129372875,
      0.05818914371679799,
      -0.047516884411652416,
      -0.017150956417799654,
      0.014649022225438965,
      -0.12223029773089056,
      0.046312313364007096,
      -0.11909242687296784,
      0.08570211683763475,
      -0.07159036483155069,
      0.05149192318404806,
      -0.04148988326481767,
      0.17106549768234824,
      0.16503593102787795,
      0.026449027077502452,
      0.05331729290902942,
      -0.023713927031508042,
      0.11712977643361291,
      -0.0017183048538109806,
      -0.10211831464552604,
      -0.0368236661108085,
      0.061420483273676885,
      0.058176234785021444,
      0.03648847150044671,
      0.01568098422238093,
      -0.0680454397458228,
      -0.007230427397042043,
      0.11568494517394737,
      0.0005711546009772206,
      -0.02568418134901301,
      -0.08963138994768527,
      0.01275903869573964,
      0.00482436433154245,
      -0.10875892620088648,
      0.0950190100914901,
      -0.21163661530180045,
      -0.0771335014185125,
      -0.16934985897711627,
      -0.1176581847330886,
      0.027869613393934203,
      -0.2090354857661419,
      0.03527825134565894
    ],
    [
      -0.05694666470250236,
      -0.018517933396917312,
      0.09365275665574152,
      0.010333760043313961,
      -0.03193617347701562,
      -0.13412207958960587,
      0.04397167496912169,
      -0.09868694976442706,
      0.09473861292017566,
      0.0014488679856877699,
      0.14632897643561546,
      0.05284092038579961,
      0.16428166193459592,
      0.021592730586220205,
      0.050976632119489974,
      0.12147248195737677,
      -0.03992295750519215,
      0.13177865887045356,
      0.1281659752827363,
      -0.14383045782043843,
      -0.01747244517730064,
      -0.0804611042256882,
      -0.019790987072219917,
      -0.021269442743269994,
      -0.1294476257511965,
      0.0565387128603582,
      -0.17325466804969242,
      -0.015953662359075974,
      -0.13081706861047473,
      0.12178155970153424,
      -0.08299058480119112,
      0.102624153031309,
      0.003046996889944128,
      -0.026591771793331845,
      0.01910919337032973,
      -0.09512530711488161,
      -0.1104641498551766,
      0.02239912419801312,
      0.11267252598520057,
      0.21656204514940436,
      0.1716072705155096,
      -0.08849114986008813,
      0.02204074202235235,
      -0.028301586673878904,
      0.1156360197838678,
      0.05861374269537324,
      0.06685575587528005,
      0.15517537190381558,
      0.07724783545036012,
      0.12673909328119567,
      0.07466534141841362,
      -0.08180527808462632,
      -0.16048373009558847,
      -0.04197284013930613,
      -0.016208272991380248,
      -0.12950586189536314,
      -0.12124753387620467,
      -0.21210631295849647,
      -0.0739774587594316,
      -0.03046933387136291,
      0.16344995113143568,
      0.04617592675583545,
      -0.08667883609862405,
      -0.0636871208939699
    ],
    [
      -0.054269844002743275,
      -0.08965006055398857,
      -0.002766807295112141,
      -0.025934843501465372,
      0.1910181146917984,
      -0.0029560337630418505,
      0.19204617486288839,
      0.10797357200128768,
      0.0005698291702043415,
      0.03771717409705741,
      -0.1766796996959911,
      0.09619671422140197,
      0.10279371840207666,
      0.09544870601802727,
      0.09669059652541606,
      0.09922919809395965,
      -0.01622902279439775,
      0.19028379791724026,
      0.07892535264936909,
      -0.23746523629506702,
      0.07862144968457957,
      0.015064355566515123,
      -0.01521791843287072,
      0.04614459514935364,
      0.07462577745019729,
      -0.13968242231070105,
      0.00230657368099166,
      -0.005223955837433132,
      -0.07049307195809294,
      -0.2027568895796913,
      -0.00251512752711546,
      0.00765519872244547,
      -0.04285848892594224,
      -0.062043840667545216,
      0.131641604928017,
      -0.0529564106782236,
      0.12762121597184617,
      -0.05298386404600902,
      -0.09136040423285903,
      -0.05145250383264465,
      0.00750021048984029,
      -0.041030650831378884,
      0.042908562263250925,
      -0.148684312268803,
      -0.07218121439929484,
      -0.14499660364838937,
      0.085028295977487,
      0.018336572404491772,
      0.002396716980653992,
      0.01030796291345333,
      0.057184846726769545,
      0.03557844684630535,
      0.08166672630230681,
      -0.030918552269185023,
      0.03986145685628065,
      -0.04298007920835579,
      0.10944260863957084,
      -0.17092127005820487,
      -0.14827209107637848,
      -0.033660919542173644,
      0.10471400531794478,
      -0.17239543074147284,
      0.19541750955939194,
      0.10301135320198776
    ],
    [
      0.0025145548260943717,
      0.09015439989247581,
      0.0422592401677456,
      -0.08590839304840775,
      -0.09125427073019107,
      0.125613367591174,
      -0.014506036236917123,
      0.11864512501270692,
      -0.06824032909248119,
      0.013632573891651118,
      0.05251017103972947,
      0.11056002036534192,
      -0.02116496681140505,
      0.0692134217303461,
      -0.057584621064590585,
      -0.08357860585933408,
      -0.08624690769958357,
      -0.18501745524738594,
      -0.07558961077811846,
      0.08333956550444142,
      -0.1019832617333847,
      -0.08971498042038939,
      -0.012540478107293133,
      -0.17248159867853052,
      0.23457928404671843,
      -0.19440491715938502,
      0.13265399420306598,
      -0.07865590623681719,
      0.05890013961685067,
      -0.041271696197148024,
      0.0951299352257693,
      0.08741843701047353,
      0.03769583416711233,
      -0.052524131388189614,
      0.03012980055049111,
      -0.12815860102721396,
      -0.08152340466775311,
      0.1193512325559713,
      0.026511972807935904,
      -0.09358501513414542,
      -0.07798923762621951,
      0.004001350166123388,
      0.013068397229170307,
      -0.06675655918914096,
      0.15654637963245993,
      0.15687470491876573,
      0.046190180912179836,
      0.09022845339385127,
      0.037305220389140574,
      0.15223821016274194,
      0.04832062847004723,
      0.0878480491808717,
      -0.05076019227840464,
      0.023912952200702893,
      -0.07602262880975892,
      0.007085619566380233,
      -0.2666717198650234,
      -0.07557578411739466,
      -0.24936186462562318,
      0.1362515331562653,
      -0.052728304413346284,
      -0.05839214976259765,
      -0.012621972231359505,
      0.2710277232033504
    ],
    [
      -0.022029794858382468,
      -0.08797427652332881,
      -0.029195201309520264,
      -0.0842250787334787,
      -0.050541501236277736,
      0.0150050809958278,
      0.0940374292555108,
      -0.0740980739079812,
      -0.17003931269569925,
      0.004426680943661974,
      0.060147160239500966,
      0.10425588863023705,
      0.16320636167443106,
      -0.13691290117060248,
      -0.0585975452469372,
      0.15525657691868697,
      -0.016052991195635156,
      0.05594604538782071,
      0.0030440947750054754,
      0.11229485253401411,
      0.1908464562667378,
      -0.060061338849550894,
      0.0053390711537685195,
      0.02388932294422225,
      -0.1165828531622849,
      -0.02308753915769697,
      -0.09041921695676591,
      0.021574562116259327,
      0.020050001130157986,
      0.0942040480171196,
      0.03573959341663201,
      -0.008289463062720484,
      -0.07272041911886883,
      -0.06054438232359871,
      -0.16481314454572904,
      -0.17292807924881382,
      0.07651474252730302,
      -0.07568930688720876,
      -0.005153285799821286,
      -0.11233834559752719,
      0.057574110480103295,
      0.06826188835889437,
      -0.21822144765942364,
      -0.03613078116991983,
      -0.00227921661355155,
      -0.13317536232085314,
      0.016213306528912796,
      0.14240760982594777,
      0.10313488032763672,
      -0.07697308470203548,
      0.042621618798413544,
      0.017742089437930323,
      0.09991402426619894,
      -0.00844642262058176,
      -0.013892327682258638,
      -0.08888613440811112,
      0.1633961457531845,
      -0.18733812495483781,
      0.035850059646482434,
      -0.08372641220199441,
      0.058536955834995776,
      0.10892083680128282,
      0.11928236249905909,
      -0.14218283539433502
    ],
    [
      -0.02971180745837217,
      -0.0460767562445869,
      0.1728701165189183,
      -0.04671459548568222,
      -0.004955063598388441,
      -0.0027347335889539573,
      0.08742216607413054,
      0.046819653765852835,
      -0.021900682109695885,
      -0.017281322319014955,
      -0.0682375397278165,
      0.1492930717561269,
      0.15227235382933044,
      -0.18280311977894326,
      0.14964099059699473,
      -0.13009974590476672,
      0.11188150002196898,
      0.04677108900101371,
      -0.10080510504595314,
      -0.10908340015753278,
      -0.08142343519799056,
      -0.024334856646499856,
      -0.0006505925752272695,
      -0.007763466234543531,
      -0.0371026430766598,
      0.11186517539504,
      0.015330129138352164,
      -0.070472001852096,
      0.12077231282953123,
      0.06465838613603529,
      0.056706385741742464,
      -0.11982275254797353,
      -0.05571111560720248,
      0.04823781121924038,
      0.1725847339884657,
      -0.0005466241332283245,
      -0.011371698797249136,
      -0.056558332098881614,
      -0.1919483110203129,
      -0.1442560464697676,
      -0.021671410435533816,
      0.0315720166377098,
      -0.0746385664166951,
      -0.004283767177497513,
      -0.1060127280250329,
      0.1243162924012496,
      0.048988646120839,
      0.060149686167466576,
      -0.004507937317163057,
      -0.04700643357191305,
      0.11785334124855917,
      0.013624036613194876,
      -0.08912296984787543,
      0.04395449312200195,
      -0.009078623439447063,
      0.11607202186259064,
      0.267569356783233,
      0.19681259333008647,
      -0.057173192265704324,
      -0.0034274183061566454,
      -0.2677809534898717,
      0.052324164477925955,
      0.07253850400737699,
      0.11179477321189424
    ],
    [
      -0.016741340646866134,
      0.045468415538059845,
      -0.13546694865025197,
      -0.01696779270304864,
      -0.1413456648955993,
      -0.16617091939361706,
      -0.08722017256684547,
      -0.07181625074397062,
      0.10183193738859989,
      -0.0038438302563085325,
      0.021355085819779962,
      0.010905838380002166,
      0.012836207420668112,
      -0.04503110628808027,
      0.07368318850293969,
      0.08257968064609068,
      -0.1828052364747987,
      -0.006394231182435247,
      -0.04428955343922221,
      0.06654569195697242,
      0.019120560304621663,
      -0.03324814049529475,
      0.0362129670832541,
      -0.12635051723550303,
      0.005854200068083916,
      0.0675949626453861,
      -0.025053105550749723,
      -0.005409567928022649,
      -0.08006399838011291,
      0.05292394143833221,
      0.009512945233869058,
      -0.022767576820647024,
      0.10128728050188728,
      0.15212697822677962,
      -0.0961313355445908,
      0.04642681962790718,
      0.01462588933670083,
      -0.025145407640998887,
      0.08032290378731338,
      0.04510473768631966,
      -0.10856618397704457,
      0.08811219177462443,
      -0.07615242708531245,
      0.045024022994331156,
      0.16698241360489657,
      -0.018598855616569054,
      0.06995131698905797,
      0.030216534834742972,
      0.0663443153564461,
      0.005938004353959109,
      0.054284060265731404,
      -0.12872301192627783,
      0.0047052508471478105,
      -0.09014075835325497,
      -0.013575828199913431,
      -0.11446163869784026,
      -0.00010246400945848045,
      0.00012701372673436836,
      -0.12629290043462188,
      0.0371525071980262,
      -0.004527410589173418,
      0.14679179609337512,
      -0.16754241858464575,
      0.019554354108903868
    ],
    [
      0.08626719620555905,
      0.11471017004169362,
      0.1098086456094965,
      0.08890508328990943,
      -0.1120512528245993,
      0.05436842443646529,
      -0.10303043877758569,
      0.01521455103298381,
      0.12330202970767434,
      -0.11353569087820614,
      0.13440463270801903,
      -0.030381448423594432,
      -0.005343195225542705,
      -0.06961473227722643,
      -0.04776446358711976,
      0.08377101497606254,
      0.004481670001345169,
      0.0394072704708156,
      -0.013501492034057889,
      0.08558042838003803,
      -0.0821276252884748,
      -0.09315507699076589,
      -0.042170244582139194,
      -0.08169898079230058,
      -0.0029580058451811847,
      0.10606069643723337,
      0.1133426243906718,
      0.0038345807553659683,
      -0.0599347686996954,
      -0.10846066204304564,
      -0.05255111208770433,
      -0.0946686932189465,
      0.1582820442273415,
      0.005933751810829873,
      0.007889222370374703,
      -0.06605932733893795,
      0.16251601186560627,
      -0.054633249647116744,
      0.09997459099971595,
      -0.01789111759415611,
      -0.01989876763596089,
      0.21160988677982756,
      -0.03714103485599397,
      -0.03499352141493635,
      0.011660395417721568,
      0.11533832358484547,
      0.11477502621364906,
      -0.04562511210336563,
      -0.075027250740764,
      -0.04585961129936238,
      -0.13826613289286935,
      -0.04519095865450053,
      0.1945287846910266,
      0.26127642510804777,
      0.053780308633505795,
      -0.18526607086607902,
      -0.07809684733957457,
      -0.05730336158510421,
      0.14414169016442618,
      0.03153535687018967,
      0.13788638552014357,
      0.24822627005154502,
      0.014225140403530899,
      0.14401150250979475
    ],
    [
      0.06602576205124615,
      -0.04338507271479913,
      0.21713543624819362,
      -0.11703945531904654,
      0.04483075218192271,
      0.011703850605248953,
      0.13148582710998716,
      -0.002748275662462424,
      -0.15610951198586095,
      0.08789711849844484,
      0.026387988382789225,
      -0.05964141404686516,
      0.05708713917154595,
      -0.07109339981868816,
      0.026447866759176944,
      0.013710396491844568,
      -0.07785947759353681,
      -0.024319583428680333,
      0.03285928750958139,
      0.03903026992645592,
      0.06964315886132197,
      0.11982910173430601,
      0.14120876719480022,
      -0.055057265764708686,
      -0.04565057324700092,
      -0.1469978098774702,
      0.1207421531410293,
      0.10675743360259891,
      0.04081857446795046,
      0.07455604967146742,
      -0.017073154582409256,
      0.13073537409840147,
      -0.10463654125331052,
      0.0735362462761907,
      0.1582022290375278,
      -0.09718913498241934,
      0.013025994857557741,
      0.12526893445176157,
      -0.055369550158532954,
      -0.03443303646950829,
      0.17465845570811658,
      -0.10438735202315115,
      0.12260107470834969,
      0.045199717394870664,
      0.11562942945618393,
      -0.16518417307452485,
      0.03191701217156278,
      -0.10003479520384027,
      -0.023708982274638295,
      0.29900676314897456,
      -0.02449729163797987,
      0.030081644809414745,
      0.0009571701993260824,
      -0.1755132340978933,
      0.006758174585992641,
      -0.03537240098625266,
      -0.04437720853887178,
      0.011323024806745447,
      -0.013528012470809965,
      0.07038578145331643,
      0.05732324632406782,
      0.06343323826319952,
      0.14767723109464093,
      0.07936396936072358
    ],
    [
      0.10604562364848745,
      0.16765170742477709,
      0.18389872877231525,
      0.026217173892700014,
      0.11527801235216173,
      -0.15435029922310978,
      -0.05708034496759489,
      -0.0768748096712491,
      -0.12190088800659725,
      -0.03208722767714952,
      0.03136394299600314,
      -0.017677661906483882,
      -0.04223963127169289,
      0.008091540529986176,
      -0.003648025511032653,
      -0.1560038094578405,
      -0.14621484655493522,
      -0.15814313488241613,
      0.14178544796649561,
      0.0860137502976115,
      -0.09681231000065371,
      0.3542924750696175,
      0.15262447856239356,
      0.05261824036540696,
      -0.08791944394451578,
      -0.09097763726657182,
      -0.18141411697764695,
      -0.184750056640067,
      -0.020480841499683763,
      0.05988296321770334,
      0.047187598035970335,
      -0.12201005365942115,
      -0.016995353114886872,
      -0.05049572338747375,
      -0.16052128473418498,
      -0.05992373707097323,
      0.11367857792788263,
      0.07479380821953645,
      0.14524476200767744,
      0.1711269320005165,
      -0.033513606356488645,
      0.028349018688802793,
      0.18111829935815849,
      0.04614322257895788,
      0.25524977603020654,
      -0.09403596426602548,
      -0.07600689672559618,
      0.1252955307279784,
      -0.07416089365155691,
      0.0038315542392765565,
      -0.06632515919174688,
      -0.12425665326797525,
      0.06410302519611018,
      0.0012576202314730526,
      0.03275807215312031,
      -0.08877456379000519,
      0.029332629300500464,
      0.03462948306843406,
      -0.050138528584138066,
      0.1710146231527452,
      0.040363924298487924,
      0.030002897069547587,
      0.13714693199178093,
      0.1225852544868443
    ],
    [
      -0.025089059018519835,
      0.027681419859416467,
      -0.14161536753570333,
      0.03504912174147675,
      -0.18634184614415464,
      -0.09029619808278515,
      -0.053117240260086344,
      -0.07121966312186381,
      0.10805409597421052,
      -0.020050729751237874,
      0.13019710346812327,
      0.10297445691742457,
      0.020656792461771493,
      0.0652484410580294,
      -0.07673241353143338,
      -0.08648161325412336,
      -0.05348767857717007,
      0.11283873896814943,
      0.05191643089872891,
      -0.02863531728639107,
      0.06719834241458605,
      -0.10807085161418827,
      -0.23453822899692842,
      0.07466073101708483,
      0.02807285217969532,
      -0.06720839176087809,
      0.1357179800151759,
      -0.21339949223915383,
      -0.11863422419276407,
      -0.09753020312800238,
      -0.001947475321430842,
      -0.13767121847760708,
      0.06329161794776665,
      -0.03258745875285934,
      0.04757278825787925,
      0.04932375810085334,
      0.0707320184840928,
      -0.2965856257570777,
      -0.2150904870704059,
      -0.08099669402928547,
      -0.0546414311772021,
      0.04584598397189626,
      -0.05748854361931188,
      0.014003471894314671,
      -0.11153851980433815,
      -0.03146325015195622,
      0.035617427939618106,
      0.01627325970102818,
      0.07069199942137216,
      0.18208222511325112,
      -0.07052384190115504,
      -0.019873964961331342,
      -0.0022869229601176757,
      0.11000109443813022,
      -0.0629798411931026,
      -0.2787390748395046,
      -0.03414120671019909,
      0.09291017165150767,
      -0.044833922014818534,
      -0.13166600086667657,
      -0.05333952377682521,
      -0.12463997298204599,
      0.06013451138935419,
      0.04457761987541698
    ],
    [
      0.044978654947138264,
      -0.008829690580741177,
      0.014050725223893515,
      -0.24333326777932773,
      -0.024860890218568004,
      0.25044066028119183,
      0.1024270539677199,
      0.07049477799342037,
      0.07596638187310617,
      0.11865293733806624,
      0.0904329430378989,
      0.0030647489628202336,
      0.16375817277894011,
      0.1503677178778842,
      0.1701066227398592,
      0.0835470529626469,
      -0.08350320645987934,
      -0.012820007030658645,
      0.04225667692892135,
      -0.20362406339743552,
      0.0370978639271009,
      -0.02929906733616118,
      -0.025022694796613478,
      0.06475571381447935,
      0.01261821231482088,
      0.019640385442741597,
      0.0749801588417343,
      0.015301923303233446,
      0.013782724451407324,
      -0.055447810985087456,
      -0.0186169913693358,
      -0.13543816244069037,
      -0.036446702961911014,
      0.0695435797499086,
      0.15603972919538434,
      -0.03194976543065914,
      0.023121437229175312,
      -0.18251825652189238,
      -0.03941308101276659,
      0.05930615618117228,
      0.1285957659148319,
      0.12301969728452525,
      -0.022352490554535583,
      0.07115856429454373,
      -0.09860210730052027,
      -0.034260540765977225,
      0.08044809614939089,
      0.14638625269658737,
      -0.05776171034056724,
      -0.16905010310489493,
      -0.11010715043236052,
      0.014970264619416862,
      0.013980311483344466,
      -0.028008274839149267,
      0.03486876731777649,
      -0.12607292510479826,
      0.013077892432102832,
      -0.2156614614685003,
      -0.051435058413512286,
      0.018945735976412848,
      -0.06365975867515465,
      0.033737080035513595,
      -0.14025534549468655,
      -0.120795966789252
    ],
    [
      -0.0018383022408360935,
      -0.09131403729332255,
      -0.11999445285095754,
      0.10256211900515254,
      0.09294450981164704,
      0.04335693816642883,
      -0.1584119652674452,
      0.1114129146749343,
      0.028291428986401457,
      0.18025751207852425,
      -0.012333885768331991,
      -0.029018942828683694,
      -0.03535838493536815,
      -0.04433313501731867,
      0.07648431800500904,
      0.11977359062584277,
      -0.24037655053243645,
      -0.026230304123280986,
      -0.031394855533618364,
      0.1539874018456888,
      0.09159285680262864,
      -0.0388990115944376,
      -0.10018115858766562,
      0.18620201507044742,
      0.15733264455553175,
      0.10218985814327575,
      -0.07336459319236868,
      0.03999374484189342,
      -0.06252307858350493,
      -0.22211251217941658,
      -0.055674439182734514,
      0.12411512220663333,
      0.041291069241964254,
      -0.040525239684158436,
      -0.09069370061087448,
      0.0482983626650511,
      -0.07215185627458162,
      -0.15556144391116788,
      0.06612770008145567,
      0.07342371246496486,
      -0.10427908982459054,
      0.019119164196248303,
      -0.17147091206516463,
      -0.1871073354457868,
      -0.045857375025948534,
      -0.012424817835225817,
      -0.03454463230315098,
      0.19623550362311165,
      0.05694736392232297,
      -0.0818555945907939,
      -0.13396031178549136,
      -0.07176818068641548,
      0.11040308943366073,
      -0.011025627866592993,
      0.2909266973429721,
      0.0630340769446115,
      0.1480779726787392,
      -0.22026535458387875,
      0.17338952465231364,
      -0.04564216995202193,
      0.10475149327917149,
      -0.041542902187197986,
      -0.18120861209147965,
      -0.1011326169738275
    ],
    [
      0.18744526012252555,
      0.009329033167578204,
      -0.024136844656151134,
      -0.13407849515157577,
      0.17799666938908898,
      0.05396033294670776,
      0.1676942981231647,
      -0.015226963873620297,
      0.01821975704921004,
      0.17564018941933035,
      -0.029830183439319438,
      0.12366815172146502,
      -0.08538725622512101,
      0.010819031805189056,
      -0.05466597665279371,
      0.10272043534580033,
      0.09328836215037889,
      0.11859318361764003,
      -0.0015628692559674342,
      0.12792945178204548,
      0.07750808113977624,
      -0.06854127316103463,
      0.08314488456552221,
      0.06331690618059595,
      0.14400948190152027,
      -0.09862632210641376,
      0.06404311963404434,
      0.036177279990727514,
      0.10814592472997867,
      0.15341005379387243,
      0.05329766385280023,
      0.05802994595706497,
      0.053790959234321124,
      -0.03000417414454333,
      0.05090650917936882,
      -0.03780998261853977,
      0.11114014459754895,
      0.047583055708643365,
      -0.11878585518302796,
      -0.02045126251277741,
      -0.07395044888002669,
      -0.047469639295699834,
      0.010537277007538084,
      0.06508821714800332,
      0.044142691986852244,
      -0.10608860358911552,
      -0.0005825876304023055,
      0.03130372880438932,
      -0.012984395615308226,
      -0.0005022273476216622,
      -0.042685092987878495,
      0.015288262106320078,
      0.11619583435051724,
      0.07268021341586671,
      -0.10859575705479226,
      0.14342735919150054,
      0.07401589521199912,
      0.17257256328650453,
      0.1021461606782183,
      0.0399611927163412,
      0.024853493287666884,
      0.11580288655604767,
      -0.03473269950694908,
      0.06426464492731092
    ],
    [
      0.14210499927026873,
      0.06789193823071397,
      0.07919500772443477,
      0.16103971123078323,
      0.01865116756208276,
      -0.045138734558771355,
      -0.09253833257878857,
      0.01593922158302075,
      -0.09330291526484569,
      0.001221911796932859,
      -0.04161958174105751,
      -0.04651824195484941,
      0.1326463769739291,
      -0.02957577845387604,
      -0.07672591838797671,
      0.12239064388158497,
      0.13349635202286275,
      -0.04326572595706771,
      0.1269475645363495,
      0.11696157857351118,
      -0.10574132837930511,
      -0.27516179162384596,
      0.007347162959564237,
      -0.043717055669231036,
      -0.00626759397186715,
      0.11057089041512425,
      -0.014162816008021356,
      -0.14652863148187556,
      -0.09122706442222293,
      -0.011579735822680112,
      1.787214337354622e-05,
      0.023773130584846505,
      -0.04360355361174226,
      -0.08879925393597815,
      0.23462470532659416,
      0.23124047514369606,
      -0.020954918382341335,
      -0.020039051407188486,
      0.04071029639303051,
      0.0278486992500881,
      0.04565176340803077,
      -0.024957284331621307,
      0.09403249877680286,
      -0.08183216615965959,
      0.05369599434887561,
      -0.009957160976138735,
      0.10157652737014328,
      0.050462567625164594,
      -0.05149782792245964,
      0.06601008734831572,
      0.048790504990276484,
      -0.11476363271368151,
      0.055432718360939694,
      0.12653640581478015,
      0.02327954517800684,
      -0.11984795620210718,
      0.10514915574578701,
      -0.037775750837109906,
      0.13446641040994817,
      0.12603801789183197,
      -0.012555568946419389,
      -0.0559609359218865,
      -0.13591644466457878,
      0.002821190846285128
    ],
    [
      0.000213865571778401,
      -0.0008128561106652881,
      -0.09132924515030728,
      -0.012885724603111375,
      0.13795068700330115,
      0.11167508685491204,
      0.044881513210793644,
      -0.048896353041543335,
      0.037379551294984194,
      -0.0230808606100407,
      -0.0009300879669786289,
      -0.16111582574428715,
      -0.05933074980366731,
      -0.04140214353417529,
      0.007078371167739406,
      -0.0857225104565393,
      -0.06043189391514381,
      -0.07258046298516205,
      0.02142465309536356,
      0.18467921085004846,
      0.16812827203934438,
      -0.15805415880993862,
      0.05793502701506802,
      0.000726252175272734,
      0.04982388900478088,
      -0.10526357234376621,
      -0.028454733239204277,
      -0.15257343436571683,
      0.03547155494073025,
      -0.005380270972067863,
      -0.05144369282444427,
      0.1365493014955368,
      -0.027963453608229296,
      0.14067913062255152,
      -0.08787410702276499,
      -0.09173494375614932,
      0.15178685089010374,
      -0.08078348866924506,
      -0.03941375147086434,
      0.00415698595575635,
      0.08093443170691154,
      0.06144320599457495,
      0.11534641321209388,
      -0.018195475310062128,
      -0.0008410512495608038,
      -0.05224934151197174,
      0.052518273790159,
      -0.0539995391957118,
      0.1211597313460978,
      0.04213234133819904,
      0.1825660175651738,
      -0.06434568032620532,
      0.03007270511344326,
      -0.1959874267680565,
      -0.09039755259261995,
      -0.1897478004464715,
      -0.0506905323078477,
      -0.20251776519590697,
      0.029502337600321213,
      -0.12256274917227977,
      0.18712618165686523,
      -0.03406114055291753,
      -0.06160806996072574,
      0.0005748814105381001
    ],
    [
      0.07360720475349596,
      0.02603243103931461,
      0.10172385410024337,
      -0.026096724099687264,
      0.13332117162055382,
      -0.2007926582482995,
      0.1106355542020099,
      -0.04215798258349021,
      0.19998024397352282,
      0.0764758064946043,
      -0.17753134377362784,
      -0.005468443097218157,
      0.07848677120632876,
      -0.00032484778481562033,
      -0.09296829803634876,
      0.1162109141130262,
      -0.04151872670686154,
      -0.23241817135468776,
      0.09208140312411373,
      -0.029895010536484152,
      0.09226887344754404,
      0.061700550961934914,
      -0.029858614997317373,
      0.08790642052331518,
      -0.042533318602251645,
      0.12421014011282427,
      0.01993995763706291,
      0.040089026057753774,
      -0.13662040217467128,
      0.12058072792270194,
      -0.10390695445404288,
      0.12282017116072211,
      -0.16122946143194483,
      0.20096766736489846,
      -0.11978708354040446,
      -0.213788273467305,
      -0.0004398694648825569,
      -0.06049511277439506,
      0.07481442271682175,
      -0.15531647462762482,
      0.1492487043598237,
      -0.03279039187537947,
      0.22555656875644403,
      0.08067678856236989,
      -0.0033546808965751298,
      -0.12172372840042056,
      -0.056346389223273265,
      0.030733778251127483,
      0.09911325835100374,
      -0.005523447467349323,
      -0.16605111166959327,
      0.10374482248268756,
      0.07280049119908345,
      -0.01044073943205752,
      -0.2455334669391303,
      0.13371485255808135,
      -0.02059380783500855,
      0.024295129133334335,
      0.0707131477446481,
      -0.15469353216247145,
      -0.03887486136738232,
      0.01638621145158569,
      0.09551534492091204,
      -0.03510777619353481
    ],
    [
      0.08701543371496466,
      0.028772773349389342,
      -0.12450640814314017,
      0.037662988549674564,
      -0.16017555125784555,
      -0.013393614823262743,
      0.033338590618087686,
      -0.015859551285079224,
      0.08811407560966078,
      -0.08246109374727612,
      -0.021542478866347355,
      0.019973145627462413,
      -0.041186062806172395,
      0.2494314701030696,
      0.03533772553859042,
      -0.006206721214527904,
      -0.0058591372792385,
      -0.26036735965139773,
      0.15226115257085623,
      -0.06629111003206944,
      -0.014492532079192738,
      0.06981650814172806,
      0.039435439974949596,
      -0.18625546222279252,
      0.17903028803885332,
      0.11883031052928626,
      -0.011794961970914501,
      0.010226343495330588,
      -0.061862211260512924,
      0.005350487900668469,
      0.13812200867005978,
      -0.02993677996346939,
      0.3055347561915773,
      -0.04018433473968713,
      -0.04946810553099269,
      -0.10390470678732827,
      0.0671758632916011,
      -0.03866251364368171,
      -0.16428925933300645,
      -0.04370036686442768,
      0.022999243018906858,
      0.043688399603336724,
      -0.010629531922972156,
      0.05342452088440071,
      -0.01040123137294158,
      -0.012289034602172573,
      0.08564689204563085,
      -0.06288141037895405,
      -0.08681877947361707,
      -0.10996128793324594,
      0.06015116204025128,
      -0.0020161610749080687,
      0.13327907183995044,
      0.023442671400877798,
      0.07951693831035819,
      0.12481344496195364,
      -0.01288326009469819,
      -0.04979115695712269,
      -0.06924055849436017,
      0.22654424060093745,
      -0.0291007331384323,
      0.021368315985152993,
      -0.037163619116764496,
      -0.040461794711676866
    ],
    [
      -0.12073775031329192,
      0.04444516135439968,
      -0.034519033353533284,
      -0.026105953342227685,
      -0.09791008078739336,
      0.1724240889685575,
      0.03372619425948722,
      -0.017974559163930797,
      0.010043495786851302,
      0.006510622975574674,
      -0.017810454080622325,
      -0.015701476029068965,
      0.03817770774814558,
      0.14051667694031914,
      -0.045461165360661776,
      -0.007342279102265353,
      -0.011034290576913044,
      0.025428086905292593,
      0.00849332497068816,
      0.004593479752141462,
      -0.10125662676085108,
      -0.04443077658258787,
      0.044332790151764695,
      0.0447178449267355,
      0.044245444994253896,
      -0.03164760576634403,
      -0.15981167986255157,
      -0.20039416920875963,
      0.09780901225267574,
      0.037736598359456336,
      0.06004330237204478,
      -0.22161960830387756,
      0.09091743079249873,
      -0.064254552406755,
      0.028421856094387188,
      -0.005133169345110158,
      -0.1715519859325901,
      -0.07824246872308284,
      -0.10946506624076707,
      0.048316101034209885,
      -0.030457862165406996,
      0.08353547165354253,
      0.03822633096657355,
      0.06999040092050565,
      0.0006657735107443792,
      -0.046993288596435666,
      0.017006712636365755,
      0.08253986410642365,
      0.10085640864109578,
      -0.18278923328284383,
      -0.2035125575902136,
      -0.11025361434496238,
      0.04146311329936028,
      -0.02663953148736264,
      0.06925670054871745,
      0.0360180313337256,
      0.21723965761206313,
      -0.011567150541509209,
      -0.07331457314873356,
      -0.03743609541140443,
      0.13121571600107623,
      0.06501715960131772,
      0.09275610070106903,
      -0.0277220373093463
    ],
    [
      -0.13544940401085678,
      0.08189049914345013,
      -0.15152587013285268,
      -0.04533858686677598,
      -0.16969135297165958,
      0.03673667196193301,
      0.006707911393042214,
      -0.014098419699205073,
      0.03954217178100072,
      -0.13465172288778054,
      0.061337011260887475,
      0.03936605287457434,
      0.1323903421694615,
      0.033259453863656994,
      -0.04947084538005964,
      0.028563998569672885,
      -0.047375169730526336,
      -0.08536995133043779,
      -0.20482439825703033,
      -0.04489529509584183,
      -0.08263525195034932,
      0.04600051155063543,
      0.13153631599876212,
      -0.10846331541780968,
      -0.10516081001175455,
      -0.05673251790907592,
      -0.01884670617888638,
      0.05790307081733496,
      0.04974634632333078,
      0.10618856343267867,
      -0.16648502093917364,
      0.1647584566038588,
      -0.23592846887427887,
      -0.005189408746520824,
      0.21063946599302388,
      -0.07816664487146585,
      -0.008619152037657634,
      -0.012891381003917686,
      0.05633460876385293,
      -0.06846782095767594,
      0.020161751780815234,
      0.020153414495419405,
      0.03671247944635341,
      -0.04466259457878775,
      -0.056035283386074525,
      -0.035709613423036246,
      -0.024741318797435217,
      0.036238395822449775,
      0.07287620845193674,
      0.10333922029115557,
      0.019463607548682316,
      0.022837052271082004,
      0.17255046895325263,
      0.07474019383127999,
      0.0922443508283938,
      0.09099612875661801,
      0.25144168539882017,
      0.004232138436903825,
      0.051440348058891694,
      0.20704619634361815,
      -0.08987041509548865,
      -0.10522367388504082,
      0.16120440846349904,
      -0.13672046717266906
    ],
    [
      -0.11895151760825494,
      0.10237223509141131,
      -0.0660646478006584,
      -0.061112303573812136,
      0.18277897784000902,
      0.05396445501527759,
      -0.038511972119669544,
      0.07790834886684045,
      -0.02628660331502533,
      -0.15470311696241484,
      0.06469890101157168,
      -0.028554497529512165,
      -0.10808446638260663,
      -0.016890108246214886,
      0.046792164992680074,
      0.09387048688571296,
      0.08686451877185941,
      -0.002647368875315906,
      0.1362184575182744,
      -0.03881434658649053,
      0.08315931102592322,
      0.2302097069478736,
      -0.13246078698345326,
      0.15447055223082262,
      0.0606725800172407,
      0.037647415517629595,
      -0.04821362432542156,
      -0.08132600787007942,
      -0.057145316179753027,
      -0.20719645823614577,
      -0.02393835625971974,
      0.06622595920858557,
      -0.1195757865258743,
      -0.0203763419542619,
      0.011547069117872266,
      -0.05252912665550984,
      0.11468742531513243,
      -0.02347956316715228,
      -0.05950572085682278,
      -0.141214606104016,
      0.1584261481380027,
      0.05799597774589508,
      0.016449805052410813,
      -0.05331525337527966,
      -0.16998547683016263,
      -0.04793824330735866,
      -0.10107625907306589,
      -0.05186228751138831,
      -0.1883806431231645,
      -0.07956173159912752,
      0.11413388012519132,
      -0.10630301901647261,
      0.16175481610546943,
      -0.0060823374653032,
      0.04269861594351897,
      -0.125047064388793,
      0.01828304204018051,
      0.0630284618760815,
      -0.09022907902255728,
      -0.03235504735816881,
      -0.02662360052727818,
      0.07039739027783407,
      -0.11469500381711635,
      -0.04553523304272894
    ],
    [
      -0.079562968130832,
      0.019259390314078757,
      -0.15968979404519795,
      0.2405571883960958,
      -0.05726864747951003,
      -0.03991520161421003,
      0.01134076552510994,
      0.007210588613339248,
      -0.006859578205626174,
      0.08794244408552639,
      -0.0750612765293293,
      -0.046357935864874626,
      -0.1279832713652768,
      0.1616906581329851,
      -0.10864329308095427,
      0.0671593261065244,
      -0.032262521322210025,
      0.09992245433189895,
      -0.09657445666334563,
      -0.1623656122377524,
      0.05438494226756522,
      -0.027703754218662408,
      0.13497701251205993,
      0.15123768102602425,
      -0.05273946524031731,
      0.22253696031880654,
      -0.08279221233985823,
      -0.07744624832552702,
      -0.08176863367217466,
      0.08196475191079484,
      -0.22169417859561397,
      -0.01854588037667791,
      -0.041594579308857765,
      -0.15609148495805739,
      0.0042912146618768994,
      0.09313209093038177,
      0.059888446185363146,
      -0.041333961791643066,
      -0.13440440313732238,
      -0.11646684515550117,
      0.17371038407498052,
      -0.11628141108122125,
      0.11081867501404281,
      0.03862130564908323,
      0.08457024102978083,
      0.09098805858108523,
      -0.0004059180104989468,
      -0.022728522831484844,
      0.03217629704322563,
      -0.05792023490086713,
      0.133396213730185,
      -0.03959282508302781,
      0.008754895554294755,
      -0.06437992067372077,
      0.08818204261183091,
      0.07274619760397927,
      0.005327582930223426,
      -0.04628283260188967,
      -0.036674168568882254,
      -0.11125373714025483,
      0.051829806638974865,
      -0.052772742955500065,
      0.03224475019890099,
      -0.09161635013255481
    ],
    [
      -0.0013556597552486869,
      0.015247320325969402,
      -0.04138249929847145,
      0.06118692271524965,
      0.07445727878652188,
      -0.030205555802960894,
      -0.13925615935303284,
      0.10042500969117446,
      0.06511092827374242,
      0.1768363791106394,
      -0.028145042267981313,
      0.009622835845673033,
      0.13813355283030224,
      0.05589618290956079,
      -0.054293224447524005,
      -0.051131460736747375,
      -0.01205390479419307,
      0.09923053061285661,
      -0.013551371972672373,
      -0.22073099700666354,
      0.05572513136783881,
      -0.07465291416693495,
      0.2628689551591258,
      -0.11285983264834294,
      0.08154690215560095,
      0.00866344341782314,
      0.029525460718269864,
      -0.06301073988952398,
      -0.04036546628106488,
      0.14480896037620963,
      -0.09790268583124412,
      -0.009550639493899301,
      0.09047192446761128,
      -0.0842506473804965,
      -0.08301097900443866,
      0.1232680206109512,
      -0.021289136996704067,
      0.12802581319036727,
      -0.04395650287866765,
      -0.0020117757327947593,
      -0.24042059037737024,
      -0.052756723177200454,
      -0.15064110682470308,
      -0.12718667174659434,
      -0.01251479963094953,
      -0.13273618762890657,
      -0.1847465699603625,
      0.10828529708609354,
      0.10862258297630221,
      0.20953300904378294,
      -0.15657883816883822,
      -0.038078100911826764,
      -0.07457609903774286,
      -0.3128737130480108,
      -0.01940247889360754,
      -0.014084840349738437,
      -0.10235516490613501,
      0.04543137685030047,
      0.03873952120669598,
      0.1470455194011693,
      0.06148784654557643,
      0.0459827300078893,
      -0.1615374215890076,
      -0.11565926420500026
    ],
    [
      0.002022282837735634,
      -0.07284696502562053,
      0.09344097141879958,
      -0.10770231559218522,
      -0.010145961756667215,
      -0.08979470684872293,
      -0.04494011454627109,
      0.0645676861226047,
      0.013743442154905906,
      0.12110514410123958,
      -0.035910758152303136,
      -0.02711923556517918,
      -0.09789790102111647,
      0.1560016990350539,
      0.02970935136460974,
      0.08727735048187181,
      -0.018075161619396922,
      0.12415970835942461,
      0.025684420974146735,
      -0.07663319522863665,
      0.05325351603639189,
      0.05914385633537982,
      -0.13069664438201997,
      0.007869883057227042,
      -0.2785909583842322,
      0.011618960847435323,
      0.06812729035531255,
      0.05053441116909625,
      0.12584392594059457,
      -0.06392428345923669,
      -0.011783361560252711,
      0.008222792564622525,
      -0.07459413857230335,
      0.15005920612857937,
      0.14601137632944067,
      -0.0494716511799114,
      0.14109627796565957,
      0.08763659337598417,
      0.012103998334728236,
      -0.1377319785149099,
      0.18179015223639627,
      0.20282915636167087,
      -0.049090494860839703,
      0.08371387671318488,
      0.10040763120447667,
      0.08227725318276054,
      -0.14515144116178477,
      0.13498956456048897,
      0.1496468302543503,
      -0.017005285581232054,
      -0.08359881827266984,
      -0.09443329476833462,
      0.13959980234909786,
      -0.13142707259712527,
      0.06525437141057677,
      0.08968808579773425,
      0.01828607653952383,
      -0.05927095892938653,
      -0.04221893603302568,
      -0.15736159747317485,
      0.06793111287233232,
      -0.04421503921523118,
      0.006468307123077371,
      0.106501387235055
    ],
    [
      0.05230420916714214,
      -0.06085509766552624,
      -0.12731225137493848,
      0.0020147204750991412,
      0.10516447493334698,
      -0.09080272634221254,
      0.082603150618739,
      -0.005773930800095001,
      0.0025950842137015626,
      0.22885928522588653,
      0.23979243292500066,
      -0.12008827303748418,
      -0.18172704206662882,
      0.111906433283896,
      0.0789333261519108,
      0.0521251482935481,
      0.0894611023531917,
      -0.05968533819306267,
      0.051253439181921524,
      -0.013501709812651252,
      0.08561435010455219,
      0.08913139510906827,
      -0.0497497287263773,
      -0.03255698597557681,
      0.047685923100317745,
      0.2118457345483356,
      0.0835641721660152,
      -0.12319162789765055,
      -0.024029281742312975,
      0.012534545986070261,
      0.11550300529062694,
      -0.09555161729518508,
      0.14080540535182734,
      0.01733033029840652,
      -0.15379252681804254,
      -0.1220799404433442,
      0.2649234962110588,
      0.08388225091950785,
      -0.09587469532020612,
      -0.2660033213909122,
      0.07937939571692039,
      0.049377013128808205,
      0.15075980995912067,
      -0.07405156503513313,
      0.13812751905312806,
      -0.051379080845390494,
      0.01709365895406279,
      -0.11486167695258852,
      -0.01720734138975689,
      -0.046695466967348026,
      0.1631935869264495,
      -0.09099187474923849,
      0.11871779847290348,
      -0.0141219648637253,
      0.06739669433310064,
      -0.004709325456588427,
      -0.17544641752884216,
      0.020156847766334442,
      0.11763882528880654,
      0.11572365400446892,
      0.0011291868581265352,
      -0.07487310866260856,
      -0.14922534762091547,
      0.06350251931195652
    ],
    [
      -0.11552628516973572,
      -0.09024307247340504,
      0.07586167602397807,
      -0.02819492503954539,
      -0.0006573039453974484,
      -0.08495059957298037,
      -0.13341150287963796,
      0.028713447675914928,
      -0.06335399383493591,
      -0.08137125019541144,
      0.1247042571114223,
      0.03075819250736931,
      0.02640136947560729,
      -0.02990027895556598,
      -0.07007479464061256,
      0.007946818127609693,
      -0.12070031720406625,
      0.14794876395651718,
      -0.027845715697002227,
      -0.1509793190160701,
      -0.11247981524678384,
      -0.009042361159646432,
      0.010988275434360463,
      0.054101202131769714,
      0.02838618198862383,
      -0.061484211420603264,
      0.23283077154418455,
      -0.019471259125759803,
      0.04322445461070431,
      0.07890333524001752,
      0.00546543206863712,
      -0.043986823420797995,
      -0.0484227491143221,
      0.04359204660211016,
      -0.12614411062066275,
      0.08183595948496153,
      0.06439621117283972,
      0.1647935036713592,
      0.04145389445587494,
      -0.05070679731727634,
      0.003618695737909053,
      -0.10404625472033453,
      -0.004249256839393514,
      -0.06449085387419298,
      0.06698773725550088,
      0.01991598985328706,
      0.1856209785885578,
      -0.044096762068998555,
      -0.15388103763173944,
      0.11621378425438299,
      0.0814025860014837,
      0.0361295006027792,
      -0.03785922646475667,
      0.04652686464976096,
      0.02444236105001109,
      0.1043384670394654,
      0.16827484547103652,
      -0.1471628143567063,
      -0.21855828457524692,
      0.08091388199144062,
      -0.07499036308807279,
      -0.0020183865297407704,
      0.1051359735835636,
      0.033593871842502634
    ],
    [
      -0.0018542868302779505,
      0.11317928737408661,
      -0.04954276732632704,
      -0.016118854851118587,
      0.017909319429159284,
      0.03544921250192086,
      -0.12171575060677253,
      -0.04855265266546017,
      -0.045455929609929564,
      -0.15289131355393304,
      -0.0027211634338535386,
      -0.03654972358462836,
      -0.16403208619824838,
      0.10065857023116778,
      -0.034773510958342385,
      -0.06211241595679489,
      -0.056218962086331314,
      -0.18477248089950038,
      -0.06576128476854413,
      0.1393574265453675,
      0.14412483782287144,
      0.04402924166342018,
      0.07846997093231856,
      0.029684107342345487,
      -0.033688345335219576,
      0.0070189659131643725,
      -0.053571498164165766,
      0.13594335442023378,
      -0.08010314794974119,
      -0.08966763492975223,
      0.05435360429316243,
      0.0122794050834349,
      0.020128369522833242,
      -0.016777384482787046,
      0.03370813079216122,
      0.06613436982553317,
      -0.03394925462043721,
      0.00046722985230002536,
      -0.018458677303103438,
      -0.01632967960267604,
      -0.1308182687272785,
      -0.10709565074867984,
      -0.07900840656977788,
      -0.011052668407349971,
      -0.16229551895433247,
      -0.012308759604344001,
      -0.0777769865256176,
      0.0031083492636898966,
      0.051242920942997185,
      0.017763465610813045,
      -0.11559382077992802,
      0.12397081999780823,
      -0.018118127639440124,
      0.16719799102068789,
      -0.1416220437625519,
      0.030006016139644317,
      -0.106438600236279,
      -0.024354612271024097,
      -0.07122208868367655,
      -0.07164120207360646,
      0.051870648564475576,
      -0.0027577382907524334,
      0.08510547498287119,
      -0.07446944605852983
    ],
    [
      -0.015363433491541343,
      0.012151715745142441,
      -0.2186075159838038,
      -0.03650731718491017,
      0.11730949148514468,
      -0.23460698775083388,
      -0.07398550053628956,
      -0.06710196755849054,
      0.033495778736767116,
      -0.081209557699742,
      -0.08874636293083571,
      -0.0173906545807092,
      -0.03418347882449085,
      -0.054578570341312964,
      -0.09509879090562409,
      0.04224021377506231,
      0.0013455138790020528,
      -0.11587791148415919,
      0.20546215175472035,
      0.005718437021620443,
      0.027841123345401227,
      0.007355077076643473,
      -0.04028234907788408,
      0.13443938416222043,
      0.14348779730734645,
      -0.005101755605379951,
      0.04364228819062789,
      -0.02750758575128642,
      -0.02972598871905299,
      0.007986821165331656,
      -0.12503339704888347,
      -0.0343315032388534,
      0.08246032927695708,
      0.11230523938754883,
      0.05126171998702679,
      0.05994405983015716,
      -0.018777643078701847,
      0.042079130096365575,
      0.02408339746625969,
      0.06527445201537141,
      0.007392953615139138,
      -0.06296646300389447,
      0.021285802885774308,
      0.1733745596202988,
      -0.022507378088758176,
      0.10325227443393087,
      -0.06781377331968261,
      -0.19087831997607155,
      0.10646872408998678,
      0.08629238675042142,
      -0.02863211362190506,
      -0.007076917257877508,
      0.09711716856080228,
      -0.007386732603183155,
      0.1509438909920581,
      -0.032325602143694114,
      -0.034323390839440214,
      0.09660997317815392,
      0.17926970612124274,
      0.1104383670307083,
      -0.0028739278798749074,
      -0.08734033679433431,
      0.0029996444882633387,
      0.019055779051318122
    ],
    [
      0.10027561543014588,
      0.04725996433904001,
      -0.021499926913049718,
      0.13122716804300708,
      -0.1954273976680328,
      -0.050383308934138386,
      0.06021499305101485,
      0.025557707272193787,
      -0.19912262193274685,
      -0.08781032007455115,
      0.04180742802035928,
      -0.0033578566628393192,
      0.03616014911784753,
      0.08110102013022533,
      -0.1386211921147806,
      0.03112616747043161,
      -0.06334822699909927,
      0.029940587855825037,
      0.07179992332776876,
      0.05355739110319912,
      0.036931136650233426,
      -0.09005016257955502,
      -0.08842940722164112,
      -0.043629504605595816,
      -0.0574760809393567,
      0.03794490843023787,
      0.010182723147450556,
      -0.05315042551163285,
      -0.07250774167342595,
      -0.12082003131403135,
      0.10002713435232642,
      0.031174547038859246,
      -0.12388082521874318,
      -0.06795418147077409,
      -0.05361531509439791,
      0.07457951478572296,
      0.15751594674609137,
      0.08742090494034327,
      0.05781251609338607,
      0.09752586713246672,
      -0.17009159085206663,
      0.016393104709439263,
      0.012042439464422058,
      0.08622742623797153,
      0.10471607844932562,
      -0.0049842894677047285,
      -0.1439425690775705,
      0.10423588658746603,
      -0.009982118339712756,
      -0.035504911117330736,
      0.1336390063360068,
      -0.0006627431943632025,
      0.06044215888116694,
      -0.20025618973859413,
      -0.005764185251605479,
      -0.0984177140930616,
      0.10015562291475344,
      -0.03613008943489962,
      -0.04812805067086359,
      0.008411113170998045,
      0.10647238051621798,
      -0.01853680308504404,
      -0.19719199855104197,
      0.05461854807157155
    ],
    [
      -0.05856528293173577,
      -0.022851831169976192,
      0.08877726204697575,
      -0.08399363216263867,
      0.05262155001605996,
      0.045296324699119345,
      0.0817326376566789,
      0.04802933246683863,
      -0.16417714941823208,
      0.10932032089506083,
      0.10500548662176652,
      -0.006121469830662467,
      0.13542457322958895,
      -0.09080007195189455,
      0.12029647493756251,
      0.10999230204668992,
      -0.07855982022035264,
      -0.03544548191945337,
      -0.07823868499865462,
      0.062326548756861104,
      -0.11910025739798893,
      -0.13479508239835636,
      0.2868507073241333,
      0.01005033111102243,
      0.13016608683409844,
      0.03536729669661941,
      0.09008793662965486,
      -0.009105864747374674,
      -0.02508417868264272,
      0.05555596514867087,
      -0.20450096874238716,
      0.1731033927010026,
      0.13917403304549303,
      0.04886035436723406,
      0.05881293278486599,
      0.02308477529310037,
      0.15207846476648756,
      -0.09079138992484893,
      -0.04140896074756314,
      0.05514594945814645,
      -0.1642096620332597,
      0.019778836968312508,
      -0.024883641632539925,
      0.02521186250648824,
      0.04922388480518557,
      0.006160937741200023,
      0.10631029356250901,
      -0.22348644448364696,
      0.16522927026658052,
      0.11456641636199312,
      0.061700986571386895,
      -0.028546897019487517,
      -0.03142728753111176,
      -0.1322950985194872,
      -0.1475810899798055,
      0.06896462261196,
      -0.03127058495475844,
      0.09651236786050055,
      -0.05823629319493108,
      0.10143400224342874,
      -0.043807273212872144,
      -0.07927955655960751,
      -0.02238892459830106,
      0.09874201275251526
    ],
    [
      -0.12427334296541107,
      0.14082468161717585,
      0.1520163492176506,
      -0.0025985179072520216,
      -0.06452606629155465,
      -0.14625427521042947,
      0.19168747882769394,
      -0.00421792467443594,
      0.21226410804117513,
      -0.10837497359024728,
      -0.09099004632854105,
      0.05821994540945841,
      -0.01502437757419453,
      0.03492621471251763,
      0.05084960220213818,
      0.1690498417015362,
      0.14537983358551426,
      0.0692363790048359,
      0.09358045915758796,
      -0.23776592832596888,
      -0.09706150723853559,
      0.07621107380149506,
      -0.0698252510744533,
      -0.004889699073904637,
      0.03045674094592282,
      -0.028063369310941323,
      0.04243962947803348,
      -0.03191809863399523,
      -0.09517486597033763,
      -0.08229968487698738,
      0.04028997611446053,
      0.12380617133075017,
      0.1857717412887025,
      -0.005968544448616352,
      -0.01700953247609766,
      -0.1468876413326948,
      -0.1193914169951174,
      -0.17064788406404122,
      0.20858595767765112,
      -0.008224594728876359,
      -0.056402877843425285,
      0.07156125367876336,
      -0.05677680401074036,
      0.010909959490750326,
      -0.1550098581126962,
      0.14963120133752456,
      0.16458508437830227,
      -0.05150764464670583,
      0.003109809375185824,
      -0.0038608468173043455,
      -0.041440856735258325,
      0.03596984437644556,
      -0.21346106015591643,
      0.08472954984762682,
      -0.010582942489732164,
      -0.0035353649948184026,
      -0.15022926047403326,
      0.026441880065393816,
      0.020914266947423717,
      0.17086205152756215,
      0.09294862398480294,
      0.08230933460471104,
      0.025146206936162364,
      -0.07689418403146964
    ],
    [
      0.016332688998878565,
      0.04864504899725481,
      0.1539079734988239,
      -0.015523726189452122,
      0.10511362588719518,
      -0.0643877523082849,
      -0.07054958930444846,
      -0.002189455219164513,
      0.12436673325807518,
      0.06370236400088225,
      -0.017731019945594406,
      -0.0866055396586497,
      0.04129213167720719,
      0.10041429825842806,
      -0.09868819903321582,
      -0.12457472605735716,
      0.012784940418998603,
      0.0073663729763368165,
      0.009247380870648324,
      -0.0251678413772137,
      0.18436432444835704,
      -0.05013339271251698,
      0.06141388468444976,
      -0.14954645214255707,
      -0.032747758647525375,
      -0.009362095463497233,
      -0.048087747206348085,
      -0.018517202337461024,
      -0.07027037777130606,
      0.23652145619007148,
      -0.04217635729299141,
      0.10535516033029342,
      -0.10862939601433355,
      0.11421103833870405,
      -0.11429987572877849,
      0.17415312745627465,
      -0.054412554144630726,
      -0.003924775599897424,
      0.0635891644230108,
      0.04628446348692422,
      0.01098262136390104,
      -0.14038206213111803,
      -0.08593703929342471,
      -0.0795030847109313,
      -0.03668365057419589,
      -0.09176132049769388,
      -0.019307783321173992,
      0.09753601095378331,
      -0.043658084011905296,
      -0.08745875850043766,
      -0.023363589641862165,
      -0.014152300674506466,
      0.010268471845719614,
      -0.01718244280451204,
      0.10603673739390324,
      -0.048297303449455625,
      -0.14020598806251625,
      -0.04226731469477223,
      0.18405853860468524,
      0.01196007213009015,
      -0.09406629943756595,
      -0.04632409131746848,
      0.07273979649420635,
      0.01059931534239342
    ],
    [
      0.07802648356138646,
      -0.0007470387819655702,
      0.03353583215016647,
      0.2107428272228336,
      -0.050698689609259634,
      -0.02979930900811585,
      -0.1354774808506315,
      -0.05206124990276112,
      -0.0546032471041515,
      0.04850430804512046,
      0.03389728227163976,
      -0.06857227781849427,
      -0.062184771475590844,
      0.056962924570348066,
      -0.11800668193409565,
      0.03286810525128455,
      -0.01265919020093758,
      0.15194663521951782,
      -0.13350311424202707,
      -0.12984360123324742,
      -0.1155404216714078,
      0.2641484216503253,
      0.08968235014097431,
      -0.06263293514245162,
      0.0537886810771409,
      -0.06233039897343798,
      0.08137704768184047,
      0.040488692196246075,
      0.04252623097952522,
      0.07008385887756434,
      -0.013527381398748081,
      -0.03272835603255805,
      0.16777435171193264,
      0.02643216812052109,
      0.04415476019278967,
      -0.03154690745155521,
      -0.04511927709085062,
      -0.07232087067135343,
      -0.11737552298533085,
      0.09067968154658691,
      -0.06487582314897758,
      0.10669383598206064,
      0.009153016725872263,
      0.1261326398689513,
      0.26916957157596233,
      0.07902928051226606,
      -0.1229181297107339,
      -0.03606293916501369,
      0.014132647925683512,
      -0.07170103254991948,
      -0.15218941033256195,
      0.02355377672802723,
      0.015149299827420193,
      -0.01941452064535848,
      -0.07912248191312435,
      -0.04444875862401214,
      -0.05374038831915097,
      -0.02841304773399412,
      0.02458503224410445,
      0.07619480365088412,
      0.010030453005155463,
      0.043714426333049894,
      0.04872880588343222,
      0.08004273947001136
    ],
    [
      -0.03260242703754865,
      -0.0730523482393468,
      0.028978539091147427,
      0.06105162104420784,
      -0.008596637672582806,
      -0.07864840546671785,
      -0.012025559631110733,
